<?xml version="1.0"?>
<opencv_storage>
<my_svm type_id="opencv-ml-svm">
  <svm_type>NU_SVC</svm_type>
  <kernel><type>RBF</type>
    <gamma>3.3750000000000002e-02</gamma></kernel>
  <nu>2.9999999999999999e-02</nu>
  <term_criteria><epsilon>1.1920928955078125e-07</epsilon>
    <iterations>1000</iterations></term_criteria>
  <var_all>9</var_all>
  <var_count>9</var_count>
  <class_count>2</class_count>
  <class_labels type_id="opencv-matrix">
    <rows>1</rows>
    <cols>2</cols>
    <dt>i</dt>
    <data>
      -1 1</data></class_labels>
  <sv_total>196</sv_total>
  <support_vectors>
    <_>
      1. 0. 7.99999952e+00 0. 0. 1. 0. 0. 0.</_>
    <_>
      21. 0. 8.73463821e+01 0. 0. 21. 0. 0. 0.</_>
    <_>
      4.03571415e+00 3. 4.21961121e+02 3.75722535e-02 4.27312136e+00
      8.82653058e-01 4. 4. 4.</_>
    <_>
      4. 3. 2.30030029e+02 9.18196980e-03 2.50166941e+00 1.52806127e+00
      6. 6. 4.</_>
    <_>
      4.03030300e+00 0. 1.14027779e+02 0. 2.40715051e+00 8.60422432e-01
      2. 2. 2.</_>
    <_>
      4.03846169e+00 0. 2.90828430e+02 0. 3.23785806e+00 1.18786979e+00
      4. 6. 4.</_>
    <_>
      20. 0. 1.57639359e+02 0. 6.64948463e-01 1.07777777e+01 0. 2. 2.</_>
    <_>
      3.13793111e+00 8. 1.85872253e+02 5.08166961e-02 2.58983660e+00
      6.55172408e-01 2. 4. 6.</_>
    <_>
      4.04166651e+00 1. 1.36129364e+02 8.49256944e-03 2.63694263e+00
      8.17708313e-01 2. 4. 2.</_>
    <_>
      2.15000000e+01 0. 1.10711235e+02 0. 5.00000000e-01 1.82500000e+01
      0. 2. 2.</_>
    <_>
      4.04166651e+00 1. 2.39099884e+02 1.81582365e-02 2.83981848e+00
      1.33854163e+00 4. 8. 4.</_>
    <_>
      5.00000000e-01 0. 4.69598541e+01 0. 1.15909088e+00 2.19999999e-01
      2. 2. 2.</_>
    <_>
      5.60000002e-01 1. 3.37558098e+01 5.21172620e-02 9.72312689e-01
      4.91200000e-01 2. 4. 2.</_>
    <_>
      1.44285717e+01 0. 1.40214767e+02 0. 9.47852790e-01 6.65306139e+00
      4. 2. 2.</_>
    <_>
      4. 5. 2.70690613e+02 1.71910107e+00 2.56601119e+00 1.47107434e+00
      4. 6. 14.</_>
    <_>
      8. 0. 3.53994904e+01 0. 0. 8. 0. 0. 0.</_>
    <_>
      1.12857141e+01 1. 1.21120621e+02 1.53256701e-02 9.31034505e-01
      5.32653046e+00 2. 2. 2.</_>
    <_>
      4.12500000e+00 1. 1.50631302e+02 9.16129053e-01 1.81774199e+00
      2.15277767e+00 2. 4. 4.</_>
    <_>
      1.35000000e+01 0. 9.91090393e+01 0. 7.55813956e-01 8.06250000e+00
      0. 2. 2.</_>
    <_>
      5.00000000e-01 0. 2.30800552e+01 0. 9.37500000e-01 3.75000000e-01
      2. 2. 2.</_>
    <_>
      4. 0. 3.14408966e+02 0. 3.91503763e+00 8.48214269e-01 2. 4. 4.</_>
    <_>
      1.66666672e-01 0. 5.29750938e+01 0. 4.23076928e-01 9.02777761e-02
      2. 2. 2.</_>
    <_>
      14. 0. 5.93627281e+01 0. 0. 14. 0. 0. 0.</_>
    <_>
      2.85714298e-01 0. 2.91421356e+01 0. 4.49999988e-01 2.04081640e-01
      2. 2. 2.</_>
    <_>
      3.62962961e+00 1. 2.55520782e+02 2.55754478e-02 4.15345287e+00
      5.36351144e-01 2. 2. 6.</_>
    <_>
      1.90322578e+00 0. 9.22762146e+01 0. 2.77936959e+00 3.63163382e-01
      2. 2. 2.</_>
    <_>
      4.09999990e+00 5. 3.22445801e+02 3.50291915e-02 2.95079231e+00
      1.33222222e+00 4. 4. 4.</_>
    <_>
      4. 0. 2.88935791e+02 0. 3.38759685e+00 1.11979163e+00 2. 2. 6.</_>
    <_>
      4. 1. 1.55831863e+02 9.62314963e-01 1.87213993e+00 2.03840876e+00
      4. 4. 4.</_>
    <_>
      3.92857146e+00 8. 2.83258026e+02 1.79752851e+00 2.72433472e+00
      1.34183669e+00 4. 4. 6.</_>
    <_>
      16. 0. 6.73565979e+01 0. 0. 16. 0. 0. 0.</_>
    <_>
      1.45000000e+01 0. 1.05454697e+02 0. 7.41007209e-01 8.68750000e+00
      0. 2. 2.</_>
    <_>
      4. 1. 1.56595978e+02 1.01381218e+00 1.92127073e+00 1.98628259e+00
      12. 4. 4.</_>
    <_>
      4.07142878e+00 3. 2.43181259e+02 1.65778518e+00 2.54038310e+00
      1.53188777e+00 4. 4. 4.</_>
    <_>
      5.00000000e-01 0. 3.26849442e+01 0. 1. 2.34375000e-01 2. 2. 2.</_>
    <_>
      7.14285731e-01 0. 2.84754696e+01 0. 9.58333313e-01 4.89795923e-01
      2. 2. 2.</_>
    <_>
      3.88461542e+00 5. 2.39123123e+02 1.38828206e+00 2.37288976e+00
      1.48964500e+00 6. 6. 4.</_>
    <_>
      4.15999985e+00 5. 3.91233337e+02 2.53432846e+00 3.51268649e+00
      1.07200003e+00 4. 4. 4.</_>
    <_>
      4.13636351e+00 2. 1.67214172e+02 1.07461143e+00 1.95854926e+00
      1.99380159e+00 2. 4. 4.</_>
    <_>
      37. 0. 1.51332275e+02 0. 0. 37. 0. 0. 0.</_>
    <_>
      4.12903214e+00 0. 2.97496674e+02 0. 4.28326464e+00 7.58584797e-01
      2. 2. 2.</_>
    <_>
      11. 0. 4.73760948e+01 0. 0. 11. 0. 0. 0.</_>
    <_>
      1.96666660e+01 0. 1.59602600e+02 0. 6.70212746e-01 1.04444447e+01
      0. 2. 4.</_>
    <_>
      4.08333349e+00 7. 3.73949371e+02 6.61417320e-02 3.28582668e+00
      1.10243058e+00 2. 2. 8.</_>
    <_>
      1.26666670e+01 1. 1.26272690e+02 4.67289705e-03 9.22897220e-01
      5.94444466e+00 2. 2. 6.</_>
    <_>
      4.11538458e+00 1. 1.98037750e+02 1.21502793e+00 2.11830544e+00
      1.85059166e+00 16. 4. 4.</_>
    <_>
      1.66666660e+01 0. 1.16747124e+02 0. 6.63157880e-01 1.05555553e+01
      0. 2. 2.</_>
    <_>
      4.10714293e+00 0. 2.34450211e+02 0. 3.19022870e+00 1.22704077e+00
      6. 4. 4.</_>
    <_>
      9.09090936e-01 0. 7.58278580e+01 8.51063803e-02 1.47872341e+00
      3.88429761e-01 2. 4. 2.</_>
    <_>
      5.00000000e-01 0. 2.75893726e+01 0. 7.94117630e-01 2.65625000e-01
      2. 2. 2.</_>
    <_>
      4.06896544e+00 0. 2.53029984e+02 0. 3.07317066e+00 1.26753867e+00
      4. 6. 4.</_>
    <_>
      1.53333330e+01 0. 1.10243774e+02 0. 6.44578338e-01 9.22222233e+00
      0. 2. 2.</_>
    <_>
      5.55555582e-01 0. 4.16831474e+01 0. 1.05263162e+00 2.34567896e-01
      2. 2. 2.</_>
    <_>
      4.00000006e-01 0. 2.26470432e+01 0. 3.33333343e-01 2.39999995e-01
      0. 2. 2.</_>
    <_>
      4.06896544e+00 0. 3.06123749e+02 0. 3.50000000e+00 1.08561242e+00
      10. 2. 4.</_>
    <_>
      4. 0. 1.45223892e+02 0. 2.93706298e+00 7.92243779e-01 2. 2. 2.</_>
    <_>
      4.08695650e+00 2. 1.71847794e+02 1.08204639e+00 1.97490346e+00
      1.95841205e+00 2. 4. 4.</_>
    <_>
      4.07692289e+00 1. 1.77085144e+02 1.18037975e+00 2.07674050e+00
      1.86982250e+00 4. 4. 6.</_>
    <_>
      7.08333349e+00 0. 3.11910461e+02 0. 3.69600010e+00 8.68055582e-01
      14. 2. 2.</_>
    <_>
      4. 2. 2.74771545e+02 1.89741218e+00 2.76987052e+00 1.38010204e+00
      8. 4. 4.</_>
    <_>
      4.19999981e+00 0. 2.58616364e+02 0. 2.92578840e+00 1.34749997e+00
      8. 4. 4.</_>
    <_>
      4.09523821e+00 0. 2.08965027e+02 1.40909088e+00 2.27272725e+00
      1.69614518e+00 4. 4. 6.</_>
    <_>
      1.61666660e+01 0. 1.24541237e+02 0. 8.28787863e-01 9.16666698e+00
      2. 2. 2.</_>
    <_>
      4.09090900e+00 6. 4.68855408e+02 5.78512400e-02 3.93755746e+00 1.
      4. 4. 6.</_>
    <_>
      4.03571415e+00 4. 1.91399612e+02 1.19348133e+00 2.09708738e+00
      1.83928573e+00 4. 4. 4.</_>
    <_>
      4.07692289e+00 2. 3.70924500e+02 5.82072176e-02 3.05355072e+00
      1.27071011e+00 4. 4. 4.</_>
    <_>
      1.85714283e+01 0. 1.38160110e+02 0. 1.18968689e+00 1.10816326e+01
      2. 4. 2.</_>
    <_>
      4.00000006e-01 0. 3.82168846e+01 0. 9.37500000e-01 1.59999996e-01
      2. 2. 2.</_>
    <_>
      3.96000004e+00 3. 2.60551727e+02 1.88471174e+00 2.80200505e+00
      1.27680004e+00 4. 4. 4.</_>
    <_>
      4. 0. 4.16591248e+02 0. 4.76344109e+00 7.74078488e-01 2. 2. 4.</_>
    <_>
      4.03125000e+00 4. 3.62475983e+02 1.63763061e-01 4.57258987e+00
      8.40820312e-01 4. 4. 6.</_>
    <_>
      4.03030300e+00 1. 3.58195618e+02 2.61525702e+00 3.50248766e+00
      1.10743797e+00 4. 4. 4.</_>
    <_>
      1.18181813e+00 2. 6.67619858e+01 1.42857149e-01 1.33116889e+00
      6.36363626e-01 2. 4. 6.</_>
    <_>
      3.36666679e+01 0. 1.95393585e+02 0. 6.70560777e-01 2.37777786e+01
      0. 2. 2.</_>
    <_>
      4.09677410e+00 2. 3.56062592e+02 3.56083103e-02 3.73887229e+00
      1.05202913e+00 4. 4. 4.</_>
    <_>
      4.07407427e+00 0. 1.61019821e+02 0. 3.22697377e+00 6.25514388e-01
      2. 2. 2.</_>
    <_>
      4. 3. 2.72758545e+02 2.34291796e-02 2.74227905e+00 1.38905323e+00
      4. 8. 8.</_>
    <_>
      2.45000000e+01 0. 1.35791702e+02 0. 4.86486495e-01 1.85000000e+01
      0. 2. 2.</_>
    <_>
      3.77777767e+00 0. 1.66555786e+02 0. 3.36206889e+00 5.56927323e-01
      2. 2. 4.</_>
    <_>
      4.10714293e+00 2. 1.99360214e+02 8.91719759e-03 3.10573244e+00
      1.00127554e+00 2. 2. 4.</_>
    <_>
      4.08333349e+00 1. 3.27300262e+02 6.75675692e-03 3.76858115e+00
      1.02777779e+00 2. 2. 2.</_>
    <_>
      5.45454562e-01 0. 2.11216450e+01 0. 8.29545438e-01 3.63636374e-01
      2. 2. 2.</_>
    <_>
      4.10344839e+00 0. 2.64115021e+02 0. 4.53026915e+00 5.30321062e-01
      2. 2. 2.</_>
    <_>
      1.80952382e+00 4. 1.07814377e+02 1.52219877e-01 1.40697670e+00
      1.07256234e+00 6. 8. 10.</_>
    <_>
      2.65000000e+01 0. 2.11390915e+02 0. 6.20689631e-01 1.45000000e+01
      0. 2. 2.</_>
    <_>
      4.03448296e+00 2. 2.41475739e+02 1.75901491e-03 2.85664034e+00
      1.35196197e+00 12. 4. 4.</_>
    <_>
      4.11111116e+00 0. 1.28293381e+02 0. 2.56981134e+00 8.17901254e-01
      2. 2. 4.</_>
    <_>
      6. 0. 5.06364746e+01 0. 4.23076928e-01 3.25000000e+00 0. 2. 2.</_>
    <_>
      23. 0. 9.53435516e+01 0. 0. 23. 0. 0. 0.</_>
    <_>
      1.20000005e+00 2. 9.18872299e+01 1.38655469e-01 1.49789917e+00
      5.95000029e-01 4. 4. 8.</_>
    <_>
      4.11111116e+00 2. 2.03382126e+02 1.43065691e+00 2.31954575e+00
      1.69135797e+00 8. 4. 4.</_>
    <_>
      1.41999998e+01 0. 1.34438278e+02 0. 8.53658557e-01 6.55999994e+00
      0. 2. 2.</_>
    <_>
      4.12121201e+00 2. 3.19135681e+02 2.18381834e+00 3.06600428e+00
      1.29384756e+00 4. 4. 4.</_>
    <_>
      1.17500000e+01 0. 9.24065781e+01 0. 7.40740716e-01 6.75000000e+00
      0. 2. 4.</_>
    <_>
      8.00000012e-01 0. 7.41204605e+01 0. 1.81751823e+00 3.42500001e-01
      4. 4. 4.</_>
    <_>
      1.51428576e+01 2. 1.15640427e+02 1.42276427e-02 9.18699205e-01
      1.00408163e+01 4. 4. 4.</_>
    <_>
      4. 0. 4.05736176e+02 0. 2.75173092e+00 1.38683128e+00 6. 4. 8.</_>
    <_>
      3.61764717e+00 0. 2.51245773e+02 0. 4.25806475e+00 4.82698947e-01
      4. 2. 2.</_>
    <_>
      4.03448296e+00 1. 3.46405884e+02 1.84940547e-02 4.29062080e+00
      9.00118887e-01 4. 6. 4.</_>
    <_>
      4.15999985e+00 6. 2.18874878e+02 9.47784781e-01 1.87816453e+00
      2.02239990e+00 4. 4. 4.</_>
    <_>
      4. 1. 4.50417694e+02 1.32669983e-02 4.61359882e+00 8.27160478e-01
      4. 4. 6.</_>
    <_>
      1.18750000e+00 2. 1.07056114e+02 1.63398698e-01 1.52614379e+00
      5.97656250e-01 4. 4. 8.</_>
    <_>
      4.06666660e+00 7. 2.96192169e+02 1.71907604e+00 2.61475420e+00
      1.49111116e+00 4. 4. 4.</_>
    <_>
      4.05000019e+00 3. 2.00799377e+02 2.31499057e-02 2.38292217e+00
      1.64687502e+00 4. 8. 4.</_>
    <_>
      5.00000000e-01 0. 3.05664272e+01 0. 9.25925910e-01 2.70000011e-01
      2. 2. 2.</_>
    <_>
      17. 0. 1.07340096e+02 0. 6.53846145e-01 1.15555553e+01 0. 2. 2.</_>
    <_>
      4.08695650e+00 2. 1.88752472e+02 1.27578950e+00 2.15368414e+00
      1.79584122e+00 2. 4. 4.</_>
    <_>
      12. 0. 6.19657478e+01 0. 7.76836157e-01 1.10625000e+01 0. 4. 2.</_>
    <_>
      4.03703690e+00 2. 4.93684448e+02 3.63636352e-02 3.80489516e+00
      9.80795622e-01 4. 4. 4.</_>
    <_>
      4.07407427e+00 0. 2.80042633e+02 0. 4.50556421e+00 8.62825811e-01
      6. 4. 4.</_>
    <_>
      9. 0. 3.93899612e+01 0. 0. 9. 0. 0. 0.</_>
    <_>
      6.66666687e-01 0. 2.99747658e+01 0. 8.57142866e-01 3.88888896e-01
      2. 2. 2.</_>
    <_>
      4.09090900e+00 6. 2.47027695e+02 1.65692002e-01 2.29775834e+00
      9.42148745e-01 2. 2. 6.</_>
    <_>
      4.16666651e+00 1. 2.24992050e+02 2.91545200e-03 3.10787177e+00
      1.05864203e+00 8. 2. 2.</_>
    <_>
      1.25000000e+00 2. 1.01480888e+02 1.37254909e-01 1.45098042e+00
      7.08333313e-01 4. 4. 6.</_>
    <_>
      1.85000000e+01 0. 1.29176437e+02 0. 4.77777779e-01 1.12500000e+01
      0. 2. 2.</_>
    <_>
      4.10344839e+00 3. 3.33338257e+02 2.36097550e+00 3.22341466e+00
      1.21878719e+00 4. 4. 4.</_>
    <_>
      1.20588231e+00 0. 1.06070534e+02 0. 3.16741061e+00 1.93771631e-01
      2. 2. 2.</_>
    <_>
      4.07142878e+00 1. 3.77048431e+02 2.92704391e+00 3.80628920e+00
      1.01403058e+00 10. 4. 4.</_>
    <_>
      39. 0. 2.74624268e+02 0. 5.67010283e-01 2.42500000e+01 0. 2. 2.</_>
    <_>
      4.09999990e+00 2. 3.38078064e+02 2.06378978e-02 3.31894946e+00
      1.18444443e+00 4. 4. 4.</_>
    <_>
      4.03999996e+00 2. 2.66588287e+02 2.39898991e-02 3.03030300e+00
      1.26719999e+00 6. 8. 4.</_>
    <_>
      3.41379309e+00 0. 1.83278397e+02 0. 4. 4.07847792e-01 2. 2. 2.</_>
    <_>
      8.00000012e-01 0. 2.83921356e+01 0. 6.87500000e-01 3.19999993e-01
      0. 2. 2.</_>
    <_>
      4.07692289e+00 2. 2.14614288e+02 1.35445201e+00 2.24743152e+00
      1.72781062e+00 4. 4. 4.</_>
    <_>
      4.25641012e+00 12. 4.35083801e+02 1.54382563e+00 2.66682816e+00
      1.35765946e+00 4. 8. 12.</_>
    <_>
      4. 4. 3.12255707e+02 2.16818643e+00 3.03647423e+00 1.25892854e+00
      4. 4. 6.</_>
    <_>
      4.02941179e+00 3. 3.49980377e+02 4.42349538e-02 3.25453234e+00
      1.19290662e+00 4. 6. 4.</_>
    <_>
      4. 1. 2.87729767e+02 2.13043475e+00 2.96875000e+00 1.27777779e+00
      4. 4. 8.</_>
    <_>
      10. 0. 6.44108658e+01 0. 8.09734523e-01 7.06250000e+00 0. 4. 2.</_>
    <_>
      2.76470590e+00 0. 1.53360519e+02 0. 3.68627453e+00 3.52941185e-01
      2. 2. 2.</_>
    <_>
      4. 1. 2.69171356e+02 1.71058822e+00 2.57058835e+00 1.47569442e+00
      4. 6. 10.</_>
    <_>
      4. 7. 4.55360321e+02 1.98177680e-01 3.58845854e+00 1.07510209e+00
      4. 8. 6.</_>
    <_>
      4.13333321e+00 1. 2.26273972e+02 2.53424663e-02 2.44315076e+00
      1.62222219e+00 4. 6. 4.</_>
    <_>
      1.03703701e+00 0. 1.28621552e+02 0. 3.28037381e+00 1.46776408e-01
      2. 2. 2.</_>
    <_>
      4.03333330e+00 3. 2.70392242e+02 7.78145716e-02 4.23841047e+00
      6.71111107e-01 2. 2. 4.</_>
    <_>
      21. 0. 1.37843109e+02 0. 4.90909100e-01 1.37500000e+01 0. 2. 2.</_>
    <_>
      8.57142866e-01 0. 2.39091682e+01 0. 8.15789461e-01 3.87755096e-01
      2. 2. 2.</_>
    <_>
      9.33333337e-01 0. 3.99148293e+01 0. 1.27631581e+00 5.06666660e-01
      2. 4. 4.</_>
    <_>
      4.07999992e+00 2. 3.46809143e+02 2.54659247e+00 3.37134910e+00
      1.15040004e+00 4. 4. 4.</_>
    <_>
      4.03846169e+00 2. 2.14614365e+02 1.37185061e+00 2.25890541e+00
      1.70266271e+00 12. 4. 4.</_>
    <_>
      5.00000000e-01 0. 2.56454086e+01 0. 9.44444418e-01 2.50000000e-01
      2. 2. 2.</_>
    <_>
      5.00000000e-01 0. 4.52940865e+01 0. 1.34259260e+00 2.10937500e-01
      2. 2. 2.</_>
    <_>
      5.33333361e-01 0. 3.92561455e+01 0. 1.18518519e+00 2.39999995e-01
      2. 2. 2.</_>
    <_>
      4.28571433e-01 0. 2.96236782e+01 0. 9.68085110e-01 2.39795923e-01
      2. 2. 2.</_>
    <_>
      6.00000024e-01 0. 3.10849438e+01 0. 1.01851857e+00 2.70000011e-01
      2. 2. 2.</_>
    <_>
      5.45454562e-01 0. 4.14917984e+01 0. 1.08333337e+00 1.98347107e-01
      2. 2. 2.</_>
    <_>
      5.50000012e-01 1. 4.23322601e+01 2.13836476e-01 1.07547164e+00
      3.97500008e-01 2. 4. 4.</_>
    <_>
      5.45454562e-01 0. 2.51979713e+01 0. 9.51219499e-01 3.38842988e-01
      2. 2. 2.</_>
    <_>
      5.00000000e-01 1. 8.09646454e+01 5.50000012e-01 1.41666663e+00
      2.34375000e-01 2. 4. 4.</_>
    <_>
      4.73684222e-01 1. 8.90881729e+01 6.84210539e-01 1.54605258e+00
      2.10526317e-01 2. 4. 4.</_>
    <_>
      5.29411793e-01 0. 7.55751953e+01 6.23376608e-01 1.41558444e+00
      2.66435981e-01 4. 4. 4.</_>
    <_>
      5.45454562e-01 0. 3.90520706e+01 0. 1.05714285e+00 2.89256185e-01
      2. 2. 2.</_>
    <_>
      4.44444448e-01 2. 6.52109451e+01 3.04347813e-01 1.17934787e+00
      2.83950627e-01 4. 2. 4.</_>
    <_>
      4.61538464e-01 0. 2.99764481e+01 0. 9.22222197e-01 2.66272187e-01
      2. 2. 2.</_>
    <_>
      5.50000012e-01 0. 4.05807419e+01 0. 1.36904764e+00 2.09999993e-01
      2. 2. 4.</_>
    <_>
      5.00000000e-01 0. 8.51170425e+01 0. 1.63194442e+00 2.22222224e-01
      4. 4. 4.</_>
    <_>
      4.00000006e-01 0. 3.45386047e+01 0. 9.59999979e-01 2.22222224e-01
      2. 2. 2.</_>
    <_>
      5.55555582e-01 0. 5.80977974e+01 0. 1.39795923e+00 3.02469134e-01
      4. 6. 4.</_>
    <_>
      5.33333361e-01 0. 4.07694092e+01 0. 1.14655173e+00 2.57777780e-01
      2. 2. 2.</_>
    <_>
      5.00000000e-01 0. 5.43546600e+01 1.53846160e-01 1.11538458e+00
      2.70833343e-01 2. 2. 4.</_>
    <_>
      5.88235319e-01 0. 5.82910385e+01 0. 1.40229881e+00 3.01038057e-01
      4. 6. 4.</_>
    <_>
      5.00000000e-01 0. 4.74288902e+01 0. 1.17499995e+00 2.77777791e-01
      2. 2. 2.</_>
    <_>
      5.33333361e-01 0. 8.90319977e+01 8.65384638e-01 1.60576928e+00
      2.31111109e-01 2. 4. 4.</_>
    <_>
      3.63636374e-01 0. 2.93137093e+01 0. 7.79999971e-01 2.06611574e-01
      2. 2. 2.</_>
    <_>
      5.83333313e-01 0. 2.88368988e+01 0. 1.06097555e+00 2.84722209e-01
      2. 2. 2.</_>
    <_>
      5.45454562e-01 0. 4.63935242e+01 0. 1.11904764e+00 3.47107440e-01
      2. 2. 2.</_>
    <_>
      5.00000000e-01 0. 2.29911346e+01 0. 9.38053071e-01 3.48765433e-01
      2. 2. 2.</_>
    <_>
      5.83333313e-01 2. 5.28197060e+01 2.45614037e-01 1.03508770e+00
      3.95833343e-01 4. 2. 4.</_>
    <_>
      6.00000024e-01 2. 6.17019691e+01 3.35766435e-01 1.26642334e+00
      3.42500001e-01 2. 2. 4.</_>
    <_>
      5.00000000e-01 2. 3.29726639e+01 1.25000000e-01 8.83928597e-01
      3.88888896e-01 2. 2. 4.</_>
    <_>
      5.00000000e-01 0. 5.02181778e+01 0. 1.19354844e+00 3.16326529e-01
      2. 2. 2.</_>
    <_>
      5.45454562e-01 0. 3.13065701e+01 0. 1. 2.72727281e-01 2. 2. 2.</_>
    <_>
      5.71428597e-01 0. 5.30197258e+01 0. 1.27049184e+00 3.11224490e-01
      2. 2. 2.</_>
    <_>
      5.38461566e-01 1. 5.19090195e+01 1.72413796e-01 1.12931037e+00
      3.43195260e-01 2. 4. 2.</_>
    <_>
      5.29411793e-01 0. 7.20945587e+01 2.89156616e-01 1.39156628e+00
      2.87197232e-01 2. 4. 4.</_>
    <_>
      5.83333313e-01 0. 2.17608471e+01 0. 8.92156839e-01 3.54166657e-01
      2. 2. 2.</_>
    <_>
      5.55555582e-01 1. 7.99307327e+01 3.05882365e-01 1.50000000e+00
      2.62345672e-01 6. 2. 4.</_>
    <_>
      5.55555582e-01 0. 3.30641441e+01 0. 9.54545438e-01 2.71604925e-01
      2. 2. 2.</_>
    <_>
      6.00000024e-01 0. 5.27562637e+01 0. 1.14285719e+00 3.49999994e-01
      2. 4. 4.</_>
    <_>
      5.45454562e-01 1. 3.71178818e+01 1.31578952e-01 9.34210539e-01
      3.14049602e-01 2. 4. 2.</_>
    <_>
      5.33333361e-01 2. 6.52213440e+01 3.47222209e-01 1.20138884e+00
      3.19999993e-01 2. 2. 4.</_>
    <_>
      4.00000006e-01 0. 2.78601685e+01 0. 8.04347813e-01 2.30000004e-01
      2. 2. 2.</_>
    <_>
      7.69230783e-01 1. 6.60995026e+01 4.03846145e-01 1.37500000e+00
      3.07692319e-01 2. 4. 4.</_>
    <_>
      5.00000000e-01 2. 5.12627106e+01 2.39999995e-01 9.90000010e-01
      3.47222209e-01 2. 2. 2.</_>
    <_>
      5.00000000e-01 0. 4.64954109e+01 0. 1.38028169e+00 2.19135806e-01
      4. 2. 2.</_>
    <_>
      5.38461566e-01 1. 2.91140919e+01 1.63934417e-02 9.26229537e-01
      3.60946745e-01 2. 2. 2.</_>
    <_>
      5.62500000e-01 0. 7.22567368e+01 0. 1.50684929e+00 2.85156250e-01
      2. 2. 2.</_>
    <_>
      5.83333313e-01 0. 4.17190552e+01 0. 1.09183669e+00 3.40277791e-01
      2. 2. 2.</_>
    <_>
      5.83333313e-01 0. 3.21826363e+01 0. 1.07894742e+00 2.63888896e-01
      2. 2. 2.</_>
    <_>
      5.00000000e-01 1. 7.68472214e+01 2.80701756e-01 1.45614040e+00
      2.22656250e-01 2. 4. 4.</_>
    <_>
      5.33333361e-01 0. 2.21994953e+01 0. 9.37500000e-01 3.55555564e-01
      2. 2. 2.</_>
    <_>
      3.63636374e-01 0. 2.63759174e+01 0. 7.75862098e-01 2.39669427e-01
      2. 2. 2.</_>
    <_>
      5.00000000e-01 0. 5.45583229e+01 0. 1.19841266e+00 3.21428567e-01
      2. 2. 2.</_>
    <_>
      5.45454562e-01 0. 2.70739822e+01 0. 9.67741907e-01 2.56198347e-01
      2. 2. 2.</_>
    <_>
      5.00000000e-01 1. 7.33740158e+01 2.65625000e-01 1.39843750e+00
      2.50000000e-01 2. 4. 4.</_></support_vectors>
  <decision_functions>
    <_>
      <sv_count>196</sv_count>
      <rho>-8.6199367427153628e-01</rho>
      <alpha>
        1.2799544921899617e-01 1.2183315577926597e-01
        9.4873380169817015e-02 6.8830015210279580e-02
        1.0518915938195258e-01 6.6108593254342443e-02
        1.1014134169485675e-01 1.1515250376194329e-01
        1.1669395083084777e-01 1.2753326455155362e-01
        9.1427588860610587e-02 1.0901059106349921e+01
        1.0901059106349921e+01 1.0335487933491619e-01
        1.3113231893186339e-01 7.7033114806336497e-02
        1.2342175316616742e-01 9.4128183268734955e-02
        1.3348443772476459e-01 1.0901059106349921e+01
        1.1841182403679375e-01 1.0901059106349921e+01
        1.3257294037232314e-01 1.0901059106349921e+01
        7.1955007003385890e-02 1.1855477119283520e+00
        1.1218952941834873e-01 6.6204168436355432e-02
        3.7560034109731098e-02 1.0562967029050611e-01
        1.1530808853212485e-01 3.1763482877383765e-02
        1.1164279272508415e-01 2.1171527135894531e-02
        1.0901059106349921e+01 1.0901059106349921e+01
        3.6957584905250744e-02 1.6707418682956593e-01
        3.6432981650874718e-02 1.1990952566778573e-01
        1.1499331130055084e-01 1.1109162518710933e-01
        5.4923957275219218e-02 1.1592451851058067e-01
        8.1401149210524354e-02 1.4987689719682948e-01
        6.2966836360820441e-02 5.7026423379053982e-02
        7.6531904472836585e+00 1.0901059106349921e+01
        3.3356440982729378e-02 5.9106682379520076e-02
        1.0901059106349921e+01 4.9776925464757857e+00
        1.2580204145692506e-01 7.7924871924662839e-02
        7.6291518291776259e-02 7.6018547276564860e-02
        1.1837334348374308e-01 8.0359598234872848e-02
        6.4059675608133526e-02 9.5862443984448084e-02
        6.6547564122261621e-02 1.2864125175890295e-01
        9.0403250441732932e-02 9.0139247880288015e-02
        8.9589871563829956e-02 1.0901059106349921e+01
        6.2570470296073599e-02 9.9186029104407811e-02
        8.5726260663758727e-02 8.6443007865840804e-02
        5.3189997172755357e+00 1.2995465290244090e-01
        3.7342691897700925e-02 1.0102288267776659e-01
        6.8729127307869994e-02 1.0161280076313371e-01
        6.8937909281041099e-02 9.4471923333503710e-02
        8.1058808440870003e-02 1.0901059106349921e+01
        6.9359673292676213e-02 1.2664307408246064e-01
        1.5999775047512130e-01 1.1933580207677570e-01
        3.9391135837467540e-02 8.6288376381183252e-01
        1.4595001751248551e-01 8.2254570281188821e-01
        6.6188779031998018e-02 9.3692757569700913e-02
        4.0004615568018008e-02 1.0134875663119700e-01
        1.0901059106349921e+01 9.7298631841707423e-02
        1.4428335412637316e-01 9.2970248353962046e-02
        4.1259779546257203e-02 1.2146330673338888e-01
        1.4677262422879975e-01 6.5882801991322779e-02
        1.4143189204564791e-01 9.1835233315234868e-02
        1.0901059106349921e+01 7.7646803540372858e-02
        4.0109038348907590e-02 4.5479269766111247e-02
        1.3547628291383432e-01 1.0978313256596471e-01
        8.5641303929699847e-02 1.0901059106349921e+01
        1.2613227092042809e-01 1.1036570841131334e-01
        3.4776713880109708e-02 8.9195527759828641e-02
        9.2588949195948803e-02 1.0810666920368664e-01
        1.5632715707645317e-01 1.2881375819104079e-01
        7.8410054223123235e-02 9.6334074128701624e-02
        9.4208564606803755e-02 4.5772164383033358e+00
        8.8141595906742143e-02 1.5240060389433016e-01
        8.8337090334781806e-02 8.2855079276135737e-02
        6.4158219793975832e-02 1.1997729979061250e-01
        6.9574203836877485e-02 3.6251809857098839e-02
        1.2457658831953915e-01 4.8608168833414747e-02
        1.0056626789419792e-01 1.0915504585881282e-01
        7.3902186059685432e-02 1.0901059106349921e+01
        1.0901059106349921e+01 6.4130204457039069e-02
        8.8961848466297677e-02 -2.6484273597586410e+00
        -3.1795888322955812e+00 -8.9014069547643437e+00
        -7.7982057691043076e+00 -6.7159748878571914e+00
        -1.0701803880746119e+00 -4.3423071884140114e+00
        -1.8071593620648727e+00 -2.0774549879413856e-01
        -1.4412104238180188e+00 -1.0901059106349921e+01
        -1.8776260953867854e-01 -1.1588290706525082e+00
        -1.0901059106349921e+01 -6.6806232616466694e+00
        -4.6116549488304076e-01 -1.3590712776934497e+00
        -2.6010194526778770e-02 -3.7756788146187487e-01
        -3.3304727640005100e-01 -8.4615673340118958e-01
        -7.7521200600278795e-01 -1.0391754840941032e+00
        -1.0901059106349921e+01 -2.7942705926119921e-01
        -4.9155259963625140e+00 -1.0371158330079872e+01
        -4.9088061804327304e-01 -8.0513330786526352e-02
        -1.7891308873078424e+00 -6.7975629772462085e+00
        -3.8018367803045989e+00 -1.4429664851330035e+00
        -2.0146724500234325e-01 -2.7154399959035502e+00
        -1.0901059106349921e+01 -1.6195710122207721e-01
        -1.0901059106349921e+01 -3.1716685828210039e-01
        -1.0901059106349921e+01 -4.0689317667108366e-01
        -1.0002933921649028e+01 -3.9853711108124941e+00
        -8.8374809557013634e-01 -6.6189818856887417e-01
        -4.2772879839956390e+00 -3.0275433120486723e+00
        -4.4902312868900642e+00 -2.0555524371430263e+00
        -2.6229121369367419e+00 -1.0901059106349921e+01
        -7.0386981504782380e+00 -5.7003217527220036e+00
        -2.5628470636572982e+00 -2.0264638395010408e+00</alpha>
      <index>
        0 1 2 3 4 5 6 7 8 9 10 11 12 13 14 15 16 17 18 19 20 21 22 23 24
        25 26 27 28 29 30 31 32 33 34 35 36 37 38 39 40 41 42 43 44 45
        46 47 48 49 50 51 52 53 54 55 56 57 58 59 60 61 62 63 64 65 66
        67 68 69 70 71 72 73 74 75 76 77 78 79 80 81 82 83 84 85 86 87
        88 89 90 91 92 93 94 95 96 97 98 99 100 101 102 103 104 105 106
        107 108 109 110 111 112 113 114 115 116 117 118 119 120 121 122
        123 124 125 126 127 128 129 130 131 132 133 134 135 136 137 138
        139 140 141 142 143 144 145 146 147 148 149 150 151 152 153 154
        155 156 157 158 159 160 161 162 163 164 165 166 167 168 169 170
        171 172 173 174 175 176 177 178 179 180 181 182 183 184 185 186
        187 188 189 190 191 192 193 194 195</index></_></decision_functions></my_svm>
</opencv_storage>
